digraph Tree {
node [shape=box, style="filled, rounded", color="black", fontname=helvetica] ;
edge [fontname=helvetica] ;
0 [label="HRVpnni50 <= 17.03\ngini = 0.11\nsamples = 51624\nvalue = [[77421, 3990]\n[73982, 7429]\n[80105, 1306]\n[78075, 3336]\n[79525, 1886]\n[81109, 302]\n[78493, 2918]\n[80352, 1059]\n[77805, 3606]\n[62702, 18709]\n[72212, 9199]]", fillcolor="#f5ccaf"] ;
1 [label="Tarea <= 685.25\ngini = 0.08\nsamples = 39905\nvalue = [[62691, 304]\n[61644, 1351]\n[62097, 898]\n[60185, 2810]\n[61590, 1405]\n[62738, 257]\n[62290, 705]\n[62447, 548]\n[61619, 1376]\n[46658, 16337]\n[54569, 8426]]", fillcolor="#f1bc96"] ;
0 -> 1 [labeldistance=2.5, labelangle=45, headlabel="True"] ;
3 [label="HRVmedian <= 502.25\ngini = 0.08\nsamples = 16818\nvalue = [[26528, 67]\n[26419, 176]\n[26348, 247]\n[25264, 1331]\n[26205, 390]\n[26530, 65]\n[26347, 248]\n[26470, 125]\n[26125, 470]\n[15952, 10643]\n[24912, 1683]]", fillcolor="#f0b68c"] ;
1 -> 3 ;
5 [label="ststd <= 25.1\ngini = 0.05\nsamples = 9088\nvalue = [[14257, 55]\n[14147, 165]\n[14108, 204]\n[13618, 694]\n[14003, 309]\n[14275, 37]\n[14122, 190]\n[14200, 112]\n[13927, 385]\n[14218, 94]\n[12633, 1679]]", fillcolor="#eca16b"] ;
3 -> 5 ;
15 [label="rrmax <= 310.5\ngini = 0.07\nsamples = 1423\nvalue = [[2222, 19]\n[2178, 63]\n[2203, 38]\n[2171, 70]\n[2192, 49]\n[2232, 9]\n[2194, 47]\n[2232, 9]\n[2209, 32]\n[2239, 2]\n[1045, 1196]]", fillcolor="#efb489"] ;
5 -> 15 ;
19 [label="HRVmin_hr <= 277.14\ngini = 0.05\nsamples = 892\nvalue = [[1394, 9]\n[1354, 49]\n[1380, 23]\n[1367, 36]\n[1365, 38]\n[1398, 5]\n[1380, 23]\n[1400, 3]\n[1401, 2]\n[1403, 0]\n[257, 1146]]", fillcolor="#eca470"] ;
15 -> 19 ;
107 [label="HRVmedian <= 299.5\ngini = 0.04\nsamples = 824\nvalue = [[1294, 8]\n[1264, 38]\n[1284, 18]\n[1266, 36]\n[1268, 34]\n[1297, 5]\n[1279, 23]\n[1299, 3]\n[1300, 2]\n[1302, 0]\n[185, 1117]]", fillcolor="#eb9f69"] ;
19 -> 107 ;
135 [label="HRVnni20 <= 4.5\ngini = 0.04\nsamples = 803\nvalue = [[1265, 8]\n[1237, 36]\n[1255, 18]\n[1239, 34]\n[1239, 34]\n[1268, 5]\n[1250, 23]\n[1270, 3]\n[1271, 2]\n[1273, 0]\n[156, 1117]]", fillcolor="#eb9d66"] ;
107 -> 135 ;
137 [label="print <= 46.5\ngini = 0.04\nsamples = 785\nvalue = [[1250, 0]\n[1224, 26]\n[1234, 16]\n[1216, 34]\n[1218, 32]\n[1245, 5]\n[1229, 21]\n[1247, 3]\n[1248, 2]\n[1250, 0]\n[135, 1115]]", fillcolor="#ea9a60"] ;
135 -> 137 ;
153 [label="gini = 0.11\nsamples = 21\nvalue = [[43, 0]\n[31, 12]\n[42, 1]\n[43, 0]\n[39, 4]\n[43, 0]\n[38, 5]\n[43, 0]\n[43, 0]\n[43, 0]\n[30, 13]]", fillcolor="#f6d2b9"] ;
137 -> 153 ;
154 [label="gini = 0.03\nsamples = 764\nvalue = [[1207, 0]\n[1193, 14]\n[1192, 15]\n[1173, 34]\n[1179, 28]\n[1202, 5]\n[1191, 16]\n[1204, 3]\n[1205, 2]\n[1207, 0]\n[105, 1102]]", fillcolor="#e99659"] ;
137 -> 154 ;
138 [label="gini = 0.14\nsamples = 18\nvalue = [[15, 8]\n[13, 10]\n[21, 2]\n[23, 0]\n[21, 2]\n[23, 0]\n[21, 2]\n[23, 0]\n[23, 0]\n[23, 0]\n[21, 2]]", fillcolor="#fae9dd"] ;
135 -> 138 ;
136 [label="gini = 0.02\nsamples = 21\nvalue = [[29, 0]\n[27, 2]\n[29, 0]\n[27, 2]\n[29, 0]\n[29, 0]\n[29, 0]\n[29, 0]\n[29, 0]\n[29, 0]\n[29, 0]]", fillcolor="#e88f4f"] ;
107 -> 136 ;
108 [label="gini = 0.07\nsamples = 68\nvalue = [[100, 1]\n[90, 11]\n[96, 5]\n[101, 0]\n[97, 4]\n[101, 0]\n[101, 0]\n[101, 0]\n[101, 0]\n[101, 0]\n[72, 29]]", fillcolor="#efb489"] ;
19 -> 108 ;
20 [label="HRVmean_hr <= 201.75\ngini = 0.04\nsamples = 531\nvalue = [[828, 10]\n[824, 14]\n[823, 15]\n[804, 34]\n[827, 11]\n[834, 4]\n[814, 24]\n[832, 6]\n[808, 30]\n[836, 2]\n[788, 50]]", fillcolor="#eb9d65"] ;
15 -> 20 ;
105 [label="gini = 0.03\nsamples = 485\nvalue = [[764, 6]\n[762, 8]\n[755, 15]\n[739, 31]\n[763, 7]\n[766, 4]\n[761, 9]\n[765, 5]\n[740, 30]\n[768, 2]\n[766, 4]]", fillcolor="#e99355"] ;
20 -> 105 ;
106 [label="gini = 0.12\nsamples = 46\nvalue = [[64, 4]\n[62, 6]\n[68, 0]\n[65, 3]\n[64, 4]\n[68, 0]\n[53, 15]\n[67, 1]\n[68, 0]\n[68, 0]\n[22, 46]]", fillcolor="#f6d5bc"] ;
20 -> 106 ;
16 [label="rrmin <= 295.5\ngini = 0.03\nsamples = 7665\nvalue = [[12035, 36]\n[11969, 102]\n[11905, 166]\n[11447, 624]\n[11811, 260]\n[12043, 28]\n[11928, 143]\n[11968, 103]\n[11718, 353]\n[11979, 92]\n[11588, 483]]", fillcolor="#ea985d"] ;
5 -> 16 ;
21 [label="HRVpnni20 <= 7.42\ngini = 0.09\nsamples = 467\nvalue = [[713, 15]\n[681, 47]\n[717, 11]\n[690, 38]\n[709, 19]\n[727, 1]\n[689, 39]\n[725, 3]\n[709, 19]\n[728, 0]\n[256, 472]]", fillcolor="#f2bf9a"] ;
16 -> 21 ;
73 [label="gini = 0.06\nsamples = 349\nvalue = [[550, 0]\n[529, 21]\n[540, 10]\n[519, 31]\n[539, 11]\n[550, 0]\n[544, 6]\n[547, 3]\n[550, 0]\n[550, 0]\n[118, 432]]", fillcolor="#eda877"] ;
21 -> 73 ;
74 [label="gini = 0.13\nsamples = 118\nvalue = [[163, 15]\n[152, 26]\n[177, 1]\n[171, 7]\n[170, 8]\n[177, 1]\n[145, 33]\n[178, 0]\n[159, 19]\n[178, 0]\n[138, 40]]", fillcolor="#f8dfcc"] ;
21 -> 74 ;
22 [label="HRVrange <= 82.5\ngini = 0.03\nsamples = 7198\nvalue = [[11322, 21]\n[11288, 55]\n[11188, 155]\n[10757, 586]\n[11102, 241]\n[11316, 27]\n[11239, 104]\n[11243, 100]\n[11009, 334]\n[11251, 92]\n[11332, 11]]", fillcolor="#e89254"] ;
16 -> 22 ;
35 [label="print <= 97.25\ngini = 0.02\nsamples = 6863\nvalue = [[10786, 10]\n[10746, 50]\n[10644, 152]\n[10238, 558]\n[10565, 231]\n[10769, 27]\n[10711, 85]\n[10704, 92]\n[10744, 52]\n[10721, 75]\n[10786, 10]]", fillcolor="#e88e4e"] ;
22 -> 35 ;
37 [label="gini = 0.01\nsamples = 6398\nvalue = [[10068, 6]\n[10031, 43]\n[9966, 108]\n[9906, 168]\n[9870, 204]\n[10064, 10]\n[9994, 80]\n[10018, 56]\n[10023, 51]\n[10005, 69]\n[10064, 10]]", fillcolor="#e78945"] ;
35 -> 37 ;
38 [label="HRVmax_hr <= 121.09\ngini = 0.08\nsamples = 465\nvalue = [[718, 4]\n[715, 7]\n[678, 44]\n[332, 390]\n[695, 27]\n[705, 17]\n[717, 5]\n[686, 36]\n[721, 1]\n[716, 6]\n[722, 0]]", fillcolor="#f1ba93"] ;
35 -> 38 ;
95 [label="gini = 0.05\nsamples = 22\nvalue = [[32, 0]\n[32, 0]\n[29, 3]\n[28, 4]\n[32, 0]\n[32, 0]\n[31, 1]\n[1, 31]\n[32, 0]\n[32, 0]\n[32, 0]]", fillcolor="#eba06a"] ;
38 -> 95 ;
96 [label="gini = 0.07\nsamples = 443\nvalue = [[686, 4]\n[683, 7]\n[649, 41]\n[304, 386]\n[663, 27]\n[673, 17]\n[686, 4]\n[685, 5]\n[689, 1]\n[684, 6]\n[690, 0]]", fillcolor="#f0b58a"] ;
38 -> 96 ;
36 [label="prstd <= 42.18\ngini = 0.08\nsamples = 335\nvalue = [[536, 11]\n[542, 5]\n[544, 3]\n[519, 28]\n[537, 10]\n[547, 0]\n[528, 19]\n[539, 8]\n[265, 282]\n[530, 17]\n[546, 1]]", fillcolor="#f0b890"] ;
22 -> 36 ;
147 [label="gini = 0.07\nsamples = 318\nvalue = [[509, 8]\n[514, 3]\n[517, 0]\n[514, 3]\n[507, 10]\n[517, 0]\n[498, 19]\n[510, 7]\n[249, 268]\n[505, 12]\n[516, 1]]", fillcolor="#efb083"] ;
36 -> 147 ;
148 [label="gini = 0.15\nsamples = 17\nvalue = [[27, 3]\n[28, 2]\n[27, 3]\n[5, 25]\n[30, 0]\n[30, 0]\n[30, 0]\n[29, 1]\n[16, 14]\n[25, 5]\n[30, 0]]", fillcolor="#fbebdf"] ;
36 -> 148 ;
6 [label="print <= 102.75\ngini = 0.04\nsamples = 7730\nvalue = [[12271, 12]\n[12272, 11]\n[12240, 43]\n[11646, 637]\n[12202, 81]\n[12255, 28]\n[12225, 58]\n[12270, 13]\n[12198, 85]\n[1734, 10549]\n[12279, 4]]", fillcolor="#ea995e"] ;
3 -> 6 ;
25 [label="HRVmean_hr <= 119.09\ngini = 0.03\nsamples = 7348\nvalue = [[11652, 5]\n[11650, 7]\n[11628, 29]\n[11418, 239]\n[11581, 76]\n[11641, 16]\n[11605, 52]\n[11647, 10]\n[11574, 83]\n[1579, 10078]\n[11654, 3]]", fillcolor="#e99456"] ;
6 -> 25 ;
51 [label="qrsstd <= 21.15\ngini = 0.03\nsamples = 7232\nvalue = [[11472, 5]\n[11470, 7]\n[11448, 29]\n[11244, 233]\n[11404, 73]\n[11461, 16]\n[11430, 47]\n[11467, 10]\n[11407, 70]\n[1441, 10036]\n[11474, 3]]", fillcolor="#e99254"] ;
25 -> 51 ;
125 [label="gini = 0.02\nsamples = 5040\nvalue = [[8023, 5]\n[8025, 3]\n[8014, 14]\n[7877, 151]\n[7969, 59]\n[8014, 14]\n[8001, 27]\n[8018, 10]\n[7986, 42]\n[753, 7275]\n[8028, 0]]", fillcolor="#e88f4f"] ;
51 -> 125 ;
126 [label="HRVrange <= 106.5\ngini = 0.04\nsamples = 2192\nvalue = [[3449, 0]\n[3445, 4]\n[3434, 15]\n[3367, 82]\n[3435, 14]\n[3447, 2]\n[3429, 20]\n[3449, 0]\n[3421, 28]\n[688, 2761]\n[3446, 3]]", fillcolor="#ea9a60"] ;
51 -> 126 ;
193 [label="rAmp <= 482.0\ngini = 0.04\nsamples = 2168\nvalue = [[3410, 0]\n[3406, 4]\n[3395, 15]\n[3328, 82]\n[3396, 14]\n[3408, 2]\n[3392, 18]\n[3410, 0]\n[3405, 5]\n[673, 2737]\n[3408, 2]]", fillcolor="#ea995f"] ;
126 -> 193 ;
195 [label="gini = 0.06\nsamples = 194\nvalue = [[318, 0]\n[318, 0]\n[314, 4]\n[306, 12]\n[308, 10]\n[318, 0]\n[311, 7]\n[318, 0]\n[318, 0]\n[146, 172]\n[318, 0]]", fillcolor="#eead7f"] ;
193 -> 195 ;
196 [label="gini = 0.03\nsamples = 1974\nvalue = [[3092, 0]\n[3088, 4]\n[3081, 11]\n[3022, 70]\n[3088, 4]\n[3090, 2]\n[3081, 11]\n[3092, 0]\n[3087, 5]\n[527, 2565]\n[3090, 2]]", fillcolor="#e9965a"] ;
193 -> 196 ;
194 [label="gini = 0.1\nsamples = 24\nvalue = [[39, 0]\n[39, 0]\n[39, 0]\n[39, 0]\n[39, 0]\n[39, 0]\n[37, 2]\n[39, 0]\n[16, 23]\n[15, 24]\n[38, 1]]", fillcolor="#f4c9aa"] ;
126 -> 194 ;
52 [label="gini = 0.06\nsamples = 116\nvalue = [[180, 0]\n[180, 0]\n[180, 0]\n[174, 6]\n[177, 3]\n[180, 0]\n[175, 5]\n[180, 0]\n[167, 13]\n[138, 42]\n[180, 0]]", fillcolor="#eda979"] ;
25 -> 52 ;
26 [label="qrsstd <= 27.96\ngini = 0.09\nsamples = 382\nvalue = [[619, 7]\n[622, 4]\n[612, 14]\n[228, 398]\n[621, 5]\n[614, 12]\n[620, 6]\n[623, 3]\n[624, 2]\n[155, 471]\n[625, 1]]", fillcolor="#f2c29f"] ;
6 -> 26 ;
177 [label="gini = 0.08\nsamples = 256\nvalue = [[404, 4]\n[404, 4]\n[404, 4]\n[144, 264]\n[403, 5]\n[399, 9]\n[406, 2]\n[405, 3]\n[408, 0]\n[53, 355]\n[408, 0]]", fillcolor="#f0b68d"] ;
26 -> 177 ;
178 [label="gini = 0.11\nsamples = 126\nvalue = [[215, 3]\n[218, 0]\n[208, 10]\n[84, 134]\n[218, 0]\n[215, 3]\n[214, 4]\n[218, 0]\n[216, 2]\n[102, 116]\n[217, 1]]", fillcolor="#f5ceb2"] ;
26 -> 178 ;
4 [label="HRVmean <= 298.57\ngini = 0.08\nsamples = 23087\nvalue = [[36163, 237]\n[35225, 1175]\n[35749, 651]\n[34921, 1479]\n[35385, 1015]\n[36208, 192]\n[35943, 457]\n[35977, 423]\n[35494, 906]\n[30706, 5694]\n[29657, 6743]]", fillcolor="#f1bc96"] ;
1 -> 4 ;
7 [label="HRVnni50 <= 0.5\ngini = 0.06\nsamples = 5498\nvalue = [[8533, 150]\n[7895, 788]\n[8538, 145]\n[8475, 208]\n[8572, 111]\n[8668, 15]\n[8485, 198]\n[8676, 7]\n[8664, 19]\n[8683, 0]\n[2005, 6678]]", fillcolor="#eeae80"] ;
4 -> 7 ;
29 [label="HRVmean <= 216.02\ngini = 0.05\nsamples = 4970\nvalue = [[7803, 45]\n[7329, 519]\n[7742, 106]\n[7655, 193]\n[7762, 86]\n[7835, 13]\n[7803, 45]\n[7841, 7]\n[7839, 9]\n[7848, 0]\n[1534, 6314]]", fillcolor="#eca470"] ;
7 -> 29 ;
31 [label="qrsstd <= 10.13\ngini = 0.08\nsamples = 943\nvalue = [[1486, 24]\n[1188, 322]\n[1493, 17]\n[1503, 7]\n[1503, 7]\n[1510, 0]\n[1506, 4]\n[1510, 0]\n[1510, 0]\n[1510, 0]\n[900, 610]]", fillcolor="#f1bb93"] ;
29 -> 31 ;
59 [label="age <= 26.5\ngini = 0.07\nsamples = 522\nvalue = [[808, 7]\n[684, 131]\n[812, 3]\n[812, 3]\n[809, 6]\n[815, 0]\n[813, 2]\n[815, 0]\n[815, 0]\n[815, 0]\n[337, 478]]", fillcolor="#f0b58a"] ;
31 -> 59 ;
61 [label="gini = 0.02\nsamples = 236\nvalue = [[369, 0]\n[366, 3]\n[369, 0]\n[369, 0]\n[369, 0]\n[369, 0]\n[369, 0]\n[369, 0]\n[369, 0]\n[369, 0]\n[33, 336]]", fillcolor="#e78a47"] ;
59 -> 61 ;
62 [label="gini = 0.09\nsamples = 286\nvalue = [[439, 7]\n[318, 128]\n[443, 3]\n[443, 3]\n[440, 6]\n[446, 0]\n[444, 2]\n[446, 0]\n[446, 0]\n[446, 0]\n[304, 142]]", fillcolor="#f1bd98"] ;
59 -> 62 ;
60 [label="HRVmin_hr <= 306.91\ngini = 0.07\nsamples = 421\nvalue = [[678, 17]\n[504, 191]\n[681, 14]\n[691, 4]\n[694, 1]\n[695, 0]\n[693, 2]\n[695, 0]\n[695, 0]\n[695, 0]\n[563, 132]]", fillcolor="#f0b58b"] ;
31 -> 60 ;
131 [label="HRVmax_hr <= 297.77\ngini = 0.09\nsamples = 211\nvalue = [[339, 9]\n[193, 155]\n[339, 9]\n[344, 4]\n[347, 1]\n[348, 0]\n[346, 2]\n[348, 0]\n[348, 0]\n[348, 0]\n[252, 96]]", fillcolor="#f3c4a2"] ;
60 -> 131 ;
187 [label="prstd <= 25.97\ngini = 0.09\nsamples = 93\nvalue = [[141, 0]\n[97, 44]\n[139, 2]\n[138, 3]\n[140, 1]\n[141, 0]\n[139, 2]\n[141, 0]\n[141, 0]\n[141, 0]\n[72, 69]]", fillcolor="#f3c5a3"] ;
131 -> 187 ;
189 [label="gini = 0.05\nsamples = 46\nvalue = [[74, 0]\n[64, 10]\n[74, 0]\n[74, 0]\n[74, 0]\n[74, 0]\n[74, 0]\n[74, 0]\n[74, 0]\n[74, 0]\n[18, 56]]", fillcolor="#eda774"] ;
187 -> 189 ;
190 [label="gini = 0.09\nsamples = 47\nvalue = [[67, 0]\n[33, 34]\n[65, 2]\n[64, 3]\n[66, 1]\n[67, 0]\n[65, 2]\n[67, 0]\n[67, 0]\n[67, 0]\n[54, 13]]", fillcolor="#f3c5a3"] ;
187 -> 190 ;
188 [label="gini = 0.08\nsamples = 118\nvalue = [[198, 9]\n[96, 111]\n[200, 7]\n[206, 1]\n[207, 0]\n[207, 0]\n[207, 0]\n[207, 0]\n[207, 0]\n[207, 0]\n[180, 27]]", fillcolor="#f1ba92"] ;
131 -> 188 ;
132 [label="gini = 0.04\nsamples = 210\nvalue = [[339, 8]\n[311, 36]\n[342, 5]\n[347, 0]\n[347, 0]\n[347, 0]\n[347, 0]\n[347, 0]\n[347, 0]\n[347, 0]\n[311, 36]]", fillcolor="#eb9c64"] ;
60 -> 132 ;
32 [label="rrmin <= 234.5\ngini = 0.03\nsamples = 4027\nvalue = [[6317, 21]\n[6141, 197]\n[6249, 89]\n[6152, 186]\n[6259, 79]\n[6325, 13]\n[6297, 41]\n[6331, 7]\n[6329, 9]\n[6338, 0]\n[634, 5704]]", fillcolor="#ea975c"] ;
29 -> 32 ;
89 [label="print <= 79.75\ngini = 0.07\nsamples = 608\nvalue = [[923, 8]\n[815, 116]\n[919, 12]\n[920, 11]\n[920, 11]\n[931, 0]\n[916, 15]\n[929, 2]\n[928, 3]\n[931, 0]\n[234, 697]]", fillcolor="#efaf81"] ;
32 -> 89 ;
91 [label="prstd <= 29.25\ngini = 0.04\nsamples = 510\nvalue = [[774, 2]\n[721, 55]\n[771, 5]\n[775, 1]\n[770, 6]\n[776, 0]\n[768, 8]\n[776, 0]\n[773, 3]\n[776, 0]\n[138, 638]]", fillcolor="#eb9f68"] ;
89 -> 91 ;
133 [label="gini = 0.04\nsamples = 475\nvalue = [[723, 2]\n[690, 35]\n[720, 5]\n[725, 0]\n[722, 3]\n[725, 0]\n[717, 8]\n[725, 0]\n[722, 3]\n[725, 0]\n[101, 624]]", fillcolor="#ea985e"] ;
91 -> 133 ;
134 [label="gini = 0.09\nsamples = 35\nvalue = [[51, 0]\n[31, 20]\n[51, 0]\n[50, 1]\n[48, 3]\n[51, 0]\n[51, 0]\n[51, 0]\n[51, 0]\n[51, 0]\n[37, 14]]", fillcolor="#f3c3a1"] ;
91 -> 134 ;
92 [label="gini = 0.13\nsamples = 98\nvalue = [[149, 6]\n[94, 61]\n[148, 7]\n[145, 10]\n[150, 5]\n[155, 0]\n[148, 7]\n[153, 2]\n[155, 0]\n[155, 0]\n[96, 59]]", fillcolor="#f8ddca"] ;
89 -> 92 ;
90 [label="gini = 0.03\nsamples = 3419\nvalue = [[5394, 13]\n[5326, 81]\n[5330, 77]\n[5232, 175]\n[5339, 68]\n[5394, 13]\n[5381, 26]\n[5402, 5]\n[5401, 6]\n[5407, 0]\n[400, 5007]]", fillcolor="#e99355"] ;
32 -> 90 ;
30 [label="rrsamEn <= 0.81\ngini = 0.15\nsamples = 528\nvalue = [[730, 105]\n[566, 269]\n[796, 39]\n[820, 15]\n[810, 25]\n[833, 2]\n[682, 153]\n[835, 0]\n[825, 10]\n[835, 0]\n[471, 364]]", fillcolor="#fceee5"] ;
7 -> 30 ;
47 [label="HRVmean_hr <= 275.2\ngini = 0.13\nsamples = 287\nvalue = [[437, 6]\n[363, 80]\n[421, 22]\n[435, 8]\n[431, 12]\n[442, 1]\n[311, 132]\n[443, 0]\n[441, 2]\n[443, 0]\n[154, 289]]", fillcolor="#f8dcc8"] ;
30 -> 47 ;
93 [label="gini = 0.12\nsamples = 216\nvalue = [[331, 5]\n[299, 37]\n[314, 22]\n[330, 6]\n[326, 10]\n[335, 1]\n[206, 130]\n[336, 0]\n[334, 2]\n[336, 0]\n[80, 256]]", fillcolor="#f7d6be"] ;
47 -> 93 ;
94 [label="gini = 0.09\nsamples = 71\nvalue = [[106, 1]\n[64, 43]\n[107, 0]\n[105, 2]\n[105, 2]\n[107, 0]\n[105, 2]\n[107, 0]\n[107, 0]\n[107, 0]\n[74, 33]]", fillcolor="#f3c4a3"] ;
47 -> 94 ;
48 [label="rrstd <= 17.45\ngini = 0.14\nsamples = 241\nvalue = [[293, 99]\n[203, 189]\n[375, 17]\n[385, 7]\n[379, 13]\n[391, 1]\n[371, 21]\n[392, 0]\n[384, 8]\n[392, 0]\n[317, 75]]", fillcolor="#fae5d6"] ;
30 -> 48 ;
165 [label="gini = 0.16\nsamples = 42\nvalue = [[53, 5]\n[43, 15]\n[52, 6]\n[56, 2]\n[57, 1]\n[57, 1]\n[47, 11]\n[58, 0]\n[56, 2]\n[58, 0]\n[23, 35]]", fillcolor="#fcf2eb"] ;
48 -> 165 ;
166 [label="HRVmedian <= 251.25\ngini = 0.12\nsamples = 199\nvalue = [[240, 94]\n[160, 174]\n[323, 11]\n[329, 5]\n[322, 12]\n[334, 0]\n[324, 10]\n[334, 0]\n[328, 6]\n[334, 0]\n[294, 40]]", fillcolor="#f8dbc6"] ;
48 -> 166 ;
167 [label="gini = 0.1\nsamples = 156\nvalue = [[174, 86]\n[111, 149]\n[257, 3]\n[259, 1]\n[252, 8]\n[260, 0]\n[259, 1]\n[260, 0]\n[260, 0]\n[260, 0]\n[255, 5]]", fillcolor="#f3c6a6"] ;
166 -> 167 ;
168 [label="pAmp <= 113.5\ngini = 0.17\nsamples = 43\nvalue = [[66, 8]\n[49, 25]\n[66, 8]\n[70, 4]\n[70, 4]\n[74, 0]\n[65, 9]\n[74, 0]\n[68, 6]\n[74, 0]\n[39, 35]]", fillcolor="#ffffff"] ;
166 -> 168 ;
181 [label="gini = 0.14\nsamples = 30\nvalue = [[39, 8]\n[23, 24]\n[45, 2]\n[46, 1]\n[47, 0]\n[47, 0]\n[43, 4]\n[47, 0]\n[41, 6]\n[47, 0]\n[38, 9]]", fillcolor="#fbeade"] ;
168 -> 181 ;
182 [label="gini = 0.11\nsamples = 13\nvalue = [[27, 0]\n[26, 1]\n[21, 6]\n[24, 3]\n[23, 4]\n[27, 0]\n[22, 5]\n[27, 0]\n[27, 0]\n[27, 0]\n[1, 26]]", fillcolor="#f6d2b8"] ;
168 -> 182 ;
8 [label="HRVmean_hr <= 119.3\ngini = 0.06\nsamples = 17589\nvalue = [[27630, 87]\n[27330, 387]\n[27211, 506]\n[26446, 1271]\n[26813, 904]\n[27540, 177]\n[27458, 259]\n[27301, 416]\n[26830, 887]\n[22023, 5694]\n[27652, 65]]", fillcolor="#eeac7c"] ;
4 -> 8 ;
9 [label="qrsstd <= 15.0\ngini = 0.06\nsamples = 4679\nvalue = [[7382, 17]\n[7343, 56]\n[7298, 101]\n[6973, 426]\n[7203, 196]\n[7377, 22]\n[7359, 40]\n[7379, 20]\n[7332, 67]\n[1768, 5631]\n[7386, 13]]", fillcolor="#eda876"] ;
8 -> 9 ;
99 [label="gini = 0.04\nsamples = 1758\nvalue = [[2803, 4]\n[2787, 20]\n[2777, 30]\n[2658, 149]\n[2735, 72]\n[2806, 1]\n[2793, 14]\n[2800, 7]\n[2776, 31]\n[433, 2374]\n[2807, 0]]", fillcolor="#eb9f68"] ;
9 -> 99 ;
100 [label="rAmp <= 633.75\ngini = 0.06\nsamples = 2921\nvalue = [[4579, 13]\n[4556, 36]\n[4521, 71]\n[4315, 277]\n[4468, 124]\n[4571, 21]\n[4566, 26]\n[4579, 13]\n[4556, 36]\n[1335, 3257]\n[4579, 13]]", fillcolor="#eeac7c"] ;
9 -> 100 ;
101 [label="gini = 0.09\nsamples = 852\nvalue = [[1333, 4]\n[1312, 25]\n[1298, 39]\n[1201, 136]\n[1228, 109]\n[1327, 10]\n[1328, 9]\n[1324, 13]\n[1329, 8]\n[641, 696]\n[1329, 8]]", fillcolor="#f2c29f"] ;
100 -> 101 ;
102 [label="gini = 0.05\nsamples = 2069\nvalue = [[3246, 9]\n[3244, 11]\n[3223, 32]\n[3114, 141]\n[3240, 15]\n[3244, 11]\n[3238, 17]\n[3255, 0]\n[3227, 28]\n[694, 2561]\n[3250, 5]]", fillcolor="#eba069"] ;
100 -> 102 ;
10 [label="rrstd <= 23.48\ngini = 0.04\nsamples = 12910\nvalue = [[20248, 70]\n[19987, 331]\n[19913, 405]\n[19473, 845]\n[19610, 708]\n[20163, 155]\n[20099, 219]\n[19922, 396]\n[19498, 820]\n[20255, 63]\n[20266, 52]]", fillcolor="#ea985d"] ;
8 -> 10 ;
23 [label="rrmin <= 494.5\ngini = 0.03\nsamples = 11953\nvalue = [[18739, 42]\n[18503, 278]\n[18401, 380]\n[17993, 788]\n[18097, 684]\n[18636, 145]\n[18643, 138]\n[18407, 374]\n[18603, 178]\n[18742, 39]\n[18741, 40]]", fillcolor="#e99456"] ;
10 -> 23 ;
39 [label="qAmp <= -627.5\ngini = 0.03\nsamples = 11843\nvalue = [[18559, 40]\n[18379, 220]\n[18219, 380]\n[17814, 785]\n[17917, 682]\n[18454, 145]\n[18461, 138]\n[18372, 227]\n[18421, 178]\n[18565, 34]\n[18559, 40]]", fillcolor="#e99254"] ;
23 -> 39 ;
67 [label="gini = 0.09\nsamples = 67\nvalue = [[106, 0]\n[87, 19]\n[99, 7]\n[100, 6]\n[105, 1]\n[104, 2]\n[106, 0]\n[28, 78]\n[106, 0]\n[106, 0]\n[106, 0]]", fillcolor="#f2c09b"] ;
39 -> 67 ;
68 [label="prstd <= 37.1\ngini = 0.03\nsamples = 11776\nvalue = [[18453, 40]\n[18292, 201]\n[18120, 373]\n[17714, 779]\n[17812, 681]\n[18350, 143]\n[18355, 138]\n[18344, 149]\n[18315, 178]\n[18459, 34]\n[18453, 40]]", fillcolor="#e89253"] ;
39 -> 68 ;
69 [label="sAmp <= -514.75\ngini = 0.02\nsamples = 10413\nvalue = [[16296, 26]\n[16234, 88]\n[16093, 229]\n[16098, 224]\n[15753, 569]\n[16269, 53]\n[16217, 105]\n[16241, 81]\n[16150, 172]\n[16296, 26]\n[16290, 32]]", fillcolor="#e78b49"] ;
68 -> 69 ;
71 [label="gini = 0.07\nsamples = 659\nvalue = [[1047, 1]\n[1029, 19]\n[1008, 40]\n[1005, 43]\n[683, 365]\n[1041, 7]\n[1039, 9]\n[1001, 47]\n[1029, 19]\n[1035, 13]\n[1047, 1]]", fillcolor="#f0b68c"] ;
69 -> 71 ;
72 [label="print <= 91.25\ngini = 0.01\nsamples = 9754\nvalue = [[15249, 25]\n[15205, 69]\n[15085, 189]\n[15093, 181]\n[15070, 204]\n[15228, 46]\n[15178, 96]\n[15240, 34]\n[15121, 153]\n[15261, 13]\n[15243, 31]]", fillcolor="#e68742"] ;
69 -> 72 ;
175 [label="gini = 0.01\nsamples = 9425\nvalue = [[14723, 21]\n[14675, 69]\n[14588, 156]\n[14654, 90]\n[14547, 197]\n[14726, 18]\n[14651, 93]\n[14715, 29]\n[14592, 152]\n[14731, 13]\n[14715, 29]]", fillcolor="#e68640"] ;
72 -> 175 ;
176 [label="gini = 0.05\nsamples = 329\nvalue = [[526, 4]\n[530, 0]\n[497, 33]\n[439, 91]\n[523, 7]\n[502, 28]\n[527, 3]\n[525, 5]\n[529, 1]\n[530, 0]\n[528, 2]]", fillcolor="#eda572"] ;
72 -> 176 ;
70 [label="Tarea <= 21614.5\ngini = 0.08\nsamples = 1363\nvalue = [[2157, 14]\n[2058, 113]\n[2027, 144]\n[1616, 555]\n[2059, 112]\n[2081, 90]\n[2138, 33]\n[2103, 68]\n[2165, 6]\n[2163, 8]\n[2163, 8]]", fillcolor="#f1bb94"] ;
68 -> 70 ;
191 [label="gini = 0.08\nsamples = 1323\nvalue = [[2093, 14]\n[2012, 95]\n[1970, 137]\n[1561, 546]\n[2004, 103]\n[2017, 90]\n[2076, 31]\n[2065, 42]\n[2101, 6]\n[2099, 8]\n[2105, 2]]", fillcolor="#f0b890"] ;
70 -> 191 ;
192 [label="gini = 0.16\nsamples = 40\nvalue = [[64, 0]\n[46, 18]\n[57, 7]\n[55, 9]\n[55, 9]\n[64, 0]\n[62, 2]\n[38, 26]\n[64, 0]\n[64, 0]\n[58, 6]]", fillcolor="#fef8f4"] ;
70 -> 192 ;
40 [label="rrmax <= 506.0\ngini = 0.08\nsamples = 110\nvalue = [[180, 2]\n[124, 58]\n[182, 0]\n[179, 3]\n[180, 2]\n[182, 0]\n[182, 0]\n[35, 147]\n[182, 0]\n[177, 5]\n[182, 0]]", fillcolor="#f1b991"] ;
23 -> 40 ;
171 [label="gini = 0.07\nsamples = 99\nvalue = [[162, 0]\n[104, 58]\n[162, 0]\n[159, 3]\n[162, 0]\n[162, 0]\n[162, 0]\n[15, 147]\n[162, 0]\n[157, 5]\n[162, 0]]", fillcolor="#eeaf81"] ;
40 -> 171 ;
172 [label="gini = 0.03\nsamples = 11\nvalue = [[18, 2]\n[20, 0]\n[20, 0]\n[20, 0]\n[18, 2]\n[20, 0]\n[20, 0]\n[20, 0]\n[20, 0]\n[20, 0]\n[20, 0]]", fillcolor="#e9965a"] ;
40 -> 172 ;
24 [label="age <= 13.5\ngini = 0.08\nsamples = 957\nvalue = [[1509, 28]\n[1484, 53]\n[1512, 25]\n[1480, 57]\n[1513, 24]\n[1527, 10]\n[1456, 81]\n[1515, 22]\n[895, 642]\n[1513, 24]\n[1525, 12]]", fillcolor="#f1bc95"] ;
10 -> 24 ;
77 [label="gini = 0.0\nsamples = 77\nvalue = [[126, 0]\n[126, 0]\n[126, 0]\n[125, 1]\n[126, 0]\n[126, 0]\n[126, 0]\n[126, 0]\n[2, 124]\n[126, 0]\n[126, 0]]", fillcolor="#e58139"] ;
24 -> 77 ;
78 [label="prstd <= 35.27\ngini = 0.08\nsamples = 880\nvalue = [[1383, 28]\n[1358, 53]\n[1386, 25]\n[1355, 56]\n[1387, 24]\n[1401, 10]\n[1330, 81]\n[1389, 22]\n[893, 518]\n[1387, 24]\n[1399, 12]]", fillcolor="#f1bd97"] ;
24 -> 78 ;
103 [label="HRVstd_hr <= 9.54\ngini = 0.06\nsamples = 724\nvalue = [[1157, 4]\n[1151, 10]\n[1151, 10]\n[1152, 9]\n[1146, 15]\n[1160, 1]\n[1111, 50]\n[1152, 9]\n[679, 482]\n[1151, 10]\n[1151, 10]]", fillcolor="#eead7f"] ;
78 -> 103 ;
127 [label="gini = 0.04\nsamples = 236\nvalue = [[385, 0]\n[383, 2]\n[383, 2]\n[385, 0]\n[381, 4]\n[385, 0]\n[382, 3]\n[385, 0]\n[305, 80]\n[382, 3]\n[385, 0]]", fillcolor="#ea995f"] ;
103 -> 127 ;
128 [label="rrmin <= 279.5\ngini = 0.07\nsamples = 488\nvalue = [[772, 4]\n[768, 8]\n[768, 8]\n[767, 9]\n[765, 11]\n[775, 1]\n[729, 47]\n[767, 9]\n[374, 402]\n[769, 7]\n[766, 10]]", fillcolor="#efb388"] ;
103 -> 128 ;
129 [label="gini = 0.08\nsamples = 63\nvalue = [[102, 0]\n[100, 2]\n[100, 2]\n[99, 3]\n[99, 3]\n[102, 0]\n[68, 34]\n[101, 1]\n[90, 12]\n[100, 2]\n[101, 1]]", fillcolor="#f1bc96"] ;
128 -> 129 ;
130 [label="gini = 0.06\nsamples = 425\nvalue = [[670, 4]\n[668, 6]\n[668, 6]\n[668, 6]\n[666, 8]\n[673, 1]\n[661, 13]\n[666, 8]\n[284, 390]\n[669, 5]\n[665, 9]]", fillcolor="#eeac7d"] ;
128 -> 130 ;
104 [label="gini = 0.15\nsamples = 156\nvalue = [[226, 24]\n[207, 43]\n[235, 15]\n[203, 47]\n[241, 9]\n[241, 9]\n[219, 31]\n[237, 13]\n[214, 36]\n[236, 14]\n[248, 2]]", fillcolor="#fcf1e9"] ;
78 -> 104 ;
2 [label="HRVnni50 <= 3.5\ngini = 0.15\nsamples = 11719\nvalue = [[14730, 3686]\n[12338, 6078]\n[18008, 408]\n[17890, 526]\n[17935, 481]\n[18371, 45]\n[16203, 2213]\n[17905, 511]\n[16186, 2230]\n[16044, 2372]\n[17643, 773]]", fillcolor="#fcf1e9"] ;
0 -> 2 [labeldistance=2.5, labelangle=-45, headlabel="False"] ;
11 [label="rrint <= 506.25\ngini = 0.15\nsamples = 3480\nvalue = [[5160, 279]\n[4953, 486]\n[5349, 90]\n[5166, 273]\n[5309, 130]\n[5423, 16]\n[4532, 907]\n[5278, 161]\n[4121, 1318]\n[3714, 1725]\n[5275, 164]]", fillcolor="#fbede2"] ;
2 -> 11 ;
13 [label="rrmax <= 372.5\ngini = 0.13\nsamples = 2032\nvalue = [[2950, 224]\n[2799, 375]\n[3105, 69]\n[3019, 155]\n[3076, 98]\n[3159, 15]\n[2617, 557]\n[3030, 144]\n[2330, 844]\n[3094, 80]\n[3017, 157]]", fillcolor="#f9e1cf"] ;
11 -> 13 ;
45 [label="HRVpnni20 <= 44.95\ngini = 0.15\nsamples = 163\nvalue = [[229, 23]\n[215, 37]\n[248, 4]\n[235, 17]\n[244, 8]\n[251, 1]\n[160, 92]\n[248, 4]\n[248, 4]\n[252, 0]\n[119, 133]]", fillcolor="#fcefe6"] ;
13 -> 45 ;
117 [label="HRVcvnni <= 0.19\ngini = 0.12\nsamples = 106\nvalue = [[164, 5]\n[162, 7]\n[168, 1]\n[155, 14]\n[163, 6]\n[168, 1]\n[92, 77]\n[165, 4]\n[169, 0]\n[169, 0]\n[50, 119]]", fillcolor="#f7d9c3"] ;
45 -> 117 ;
185 [label="gini = 0.11\nsamples = 91\nvalue = [[142, 5]\n[141, 6]\n[147, 0]\n[136, 11]\n[141, 6]\n[146, 1]\n[70, 77]\n[147, 0]\n[147, 0]\n[147, 0]\n[30, 117]]", fillcolor="#f5cfb4"] ;
117 -> 185 ;
186 [label="gini = 0.08\nsamples = 15\nvalue = [[22, 0]\n[21, 1]\n[21, 1]\n[19, 3]\n[22, 0]\n[22, 0]\n[22, 0]\n[18, 4]\n[22, 0]\n[22, 0]\n[20, 2]]", fillcolor="#f1b991"] ;
117 -> 186 ;
118 [label="gini = 0.15\nsamples = 57\nvalue = [[65, 18]\n[53, 30]\n[80, 3]\n[80, 3]\n[81, 2]\n[83, 0]\n[68, 15]\n[83, 0]\n[79, 4]\n[83, 0]\n[69, 14]]", fillcolor="#fceee5"] ;
45 -> 118 ;
46 [label="qAmpstd <= 219.01\ngini = 0.12\nsamples = 1869\nvalue = [[2721, 201]\n[2584, 338]\n[2857, 65]\n[2784, 138]\n[2832, 90]\n[2908, 14]\n[2457, 465]\n[2782, 140]\n[2082, 840]\n[2842, 80]\n[2898, 24]]", fillcolor="#f8dbc7"] ;
13 -> 46 ;
63 [label="HRVcvsd <= 0.16\ngini = 0.12\nsamples = 1773\nvalue = [[2568, 196]\n[2484, 280]\n[2703, 61]\n[2629, 135]\n[2679, 85]\n[2750, 14]\n[2307, 457]\n[2709, 55]\n[1931, 833]\n[2687, 77]\n[2742, 22]]", fillcolor="#f7d8c1"] ;
46 -> 63 ;
65 [label="rrstd <= 29.39\ngini = 0.11\nsamples = 994\nvalue = [[1457, 99]\n[1393, 163]\n[1529, 27]\n[1502, 54]\n[1516, 40]\n[1552, 4]\n[1439, 117]\n[1532, 24]\n[844, 712]\n[1504, 52]\n[1555, 1]]", fillcolor="#f5cfb4"] ;
63 -> 65 ;
119 [label="gini = 0.1\nsamples = 291\nvalue = [[424, 20]\n[415, 29]\n[431, 13]\n[421, 23]\n[426, 18]\n[440, 4]\n[410, 34]\n[432, 12]\n[331, 113]\n[436, 8]\n[444, 0]]", fillcolor="#f3c6a6"] ;
65 -> 119 ;
120 [label="prstd <= 33.93\ngini = 0.11\nsamples = 703\nvalue = [[1033, 79]\n[978, 134]\n[1098, 14]\n[1081, 31]\n[1090, 22]\n[1112, 0]\n[1029, 83]\n[1100, 12]\n[513, 599]\n[1068, 44]\n[1111, 1]]", fillcolor="#f5cfb4"] ;
65 -> 120 ;
121 [label="rrsamEn <= 0.66\ngini = 0.07\nsamples = 470\nvalue = [[727, 8]\n[724, 11]\n[728, 7]\n[732, 3]\n[723, 12]\n[735, 0]\n[675, 60]\n[732, 3]\n[227, 508]\n[699, 36]\n[734, 1]]", fillcolor="#efb488"] ;
120 -> 121 ;
179 [label="gini = 0.1\nsamples = 47\nvalue = [[76, 0]\n[71, 5]\n[75, 1]\n[75, 1]\n[73, 3]\n[76, 0]\n[58, 18]\n[74, 2]\n[54, 22]\n[74, 2]\n[75, 1]]", fillcolor="#f4ccaf"] ;
121 -> 179 ;
180 [label="gini = 0.06\nsamples = 423\nvalue = [[651, 8]\n[653, 6]\n[653, 6]\n[657, 2]\n[650, 9]\n[659, 0]\n[617, 42]\n[658, 1]\n[173, 486]\n[625, 34]\n[659, 0]]", fillcolor="#eead7f"] ;
121 -> 180 ;
122 [label="HRVmax_hr <= 154.04\ngini = 0.14\nsamples = 233\nvalue = [[306, 71]\n[254, 123]\n[370, 7]\n[349, 28]\n[367, 10]\n[377, 0]\n[354, 23]\n[368, 9]\n[286, 91]\n[369, 8]\n[377, 0]]", fillcolor="#fae6d8"] ;
120 -> 122 ;
123 [label="gini = 0.12\nsamples = 77\nvalue = [[113, 9]\n[111, 11]\n[121, 1]\n[102, 20]\n[116, 6]\n[122, 0]\n[118, 4]\n[122, 0]\n[58, 64]\n[114, 8]\n[122, 0]]", fillcolor="#f8dbc6"] ;
122 -> 123 ;
124 [label="gini = 0.13\nsamples = 156\nvalue = [[193, 62]\n[143, 112]\n[249, 6]\n[247, 8]\n[251, 4]\n[255, 0]\n[236, 19]\n[246, 9]\n[228, 27]\n[255, 0]\n[255, 0]]", fillcolor="#f8dcc9"] ;
122 -> 124 ;
66 [label="prstd <= 36.21\ngini = 0.12\nsamples = 779\nvalue = [[1111, 97]\n[1091, 117]\n[1174, 34]\n[1127, 81]\n[1163, 45]\n[1198, 10]\n[868, 340]\n[1177, 31]\n[1087, 121]\n[1183, 25]\n[1187, 21]]", fillcolor="#f7d6bf"] ;
63 -> 66 ;
97 [label="gini = 0.09\nsamples = 458\nvalue = [[689, 17]\n[693, 13]\n[691, 15]\n[701, 5]\n[676, 30]\n[706, 0]\n[453, 253]\n[698, 8]\n[618, 88]\n[694, 12]\n[691, 15]]", fillcolor="#f2c19e"] ;
66 -> 97 ;
98 [label="gini = 0.14\nsamples = 321\nvalue = [[422, 80]\n[398, 104]\n[483, 19]\n[426, 76]\n[487, 15]\n[492, 10]\n[415, 87]\n[479, 23]\n[469, 33]\n[489, 13]\n[496, 6]]", fillcolor="#fbeade"] ;
66 -> 98 ;
64 [label="HRVmean <= 423.09\ngini = 0.13\nsamples = 96\nvalue = [[153, 5]\n[100, 58]\n[154, 4]\n[155, 3]\n[153, 5]\n[158, 0]\n[150, 8]\n[73, 85]\n[151, 7]\n[155, 3]\n[156, 2]]", fillcolor="#f8decb"] ;
46 -> 64 ;
173 [label="gini = 0.11\nsamples = 34\nvalue = [[42, 5]\n[44, 3]\n[44, 3]\n[46, 1]\n[43, 4]\n[47, 0]\n[43, 4]\n[40, 7]\n[42, 5]\n[47, 0]\n[47, 0]]", fillcolor="#f6d1b7"] ;
64 -> 173 ;
174 [label="gini = 0.11\nsamples = 62\nvalue = [[111, 0]\n[56, 55]\n[110, 1]\n[109, 2]\n[110, 1]\n[111, 0]\n[107, 4]\n[33, 78]\n[109, 2]\n[108, 3]\n[109, 2]]", fillcolor="#f5ceb2"] ;
64 -> 174 ;
14 [label="HRVrmssd <= 97.25\ngini = 0.12\nsamples = 1448\nvalue = [[2210, 55]\n[2154, 111]\n[2244, 21]\n[2147, 118]\n[2233, 32]\n[2264, 1]\n[1915, 350]\n[2248, 17]\n[1791, 474]\n[620, 1645]\n[2258, 7]]", fillcolor="#f7d6be"] ;
11 -> 14 ;
43 [label="nnint <= 511.25\ngini = 0.09\nsamples = 1010\nvalue = [[1560, 20]\n[1540, 40]\n[1572, 8]\n[1507, 73]\n[1560, 20]\n[1579, 1]\n[1525, 55]\n[1575, 5]\n[1157, 423]\n[366, 1214]\n[1576, 4]]", fillcolor="#f3c3a1"] ;
14 -> 43 ;
75 [label="gini = 0.13\nsamples = 306\nvalue = [[464, 15]\n[458, 21]\n[477, 2]\n[456, 23]\n[468, 11]\n[479, 0]\n[429, 50]\n[475, 4]\n[240, 239]\n[157, 322]\n[476, 3]]", fillcolor="#f9e0ce"] ;
43 -> 75 ;
76 [label="HRVstd_hr <= 7.96\ngini = 0.07\nsamples = 704\nvalue = [[1096, 5]\n[1082, 19]\n[1095, 6]\n[1051, 50]\n[1092, 9]\n[1100, 1]\n[1096, 5]\n[1100, 1]\n[917, 184]\n[209, 892]\n[1100, 1]]", fillcolor="#efb185"] ;
43 -> 76 ;
79 [label="qtstd <= 101.86\ngini = 0.06\nsamples = 597\nvalue = [[937, 3]\n[924, 16]\n[934, 6]\n[892, 48]\n[932, 8]\n[939, 1]\n[936, 4]\n[939, 1]\n[857, 83]\n[156, 784]\n[939, 1]]", fillcolor="#eda876"] ;
76 -> 79 ;
149 [label="gini = 0.05\nsamples = 568\nvalue = [[890, 2]\n[889, 3]\n[888, 4]\n[858, 34]\n[884, 8]\n[891, 1]\n[888, 4]\n[891, 1]\n[809, 83]\n[123, 769]\n[892, 0]]", fillcolor="#eca26d"] ;
79 -> 149 ;
150 [label="gini = 0.13\nsamples = 29\nvalue = [[47, 1]\n[35, 13]\n[46, 2]\n[34, 14]\n[48, 0]\n[48, 0]\n[48, 0]\n[48, 0]\n[48, 0]\n[33, 15]\n[47, 1]]", fillcolor="#f8ddc9"] ;
79 -> 150 ;
80 [label="gini = 0.09\nsamples = 107\nvalue = [[159, 2]\n[158, 3]\n[161, 0]\n[159, 2]\n[160, 1]\n[161, 0]\n[160, 1]\n[161, 0]\n[60, 101]\n[53, 108]\n[161, 0]]", fillcolor="#f3c3a1"] ;
76 -> 80 ;
44 [label="rrint <= 634.5\ngini = 0.15\nsamples = 438\nvalue = [[650, 35]\n[614, 71]\n[672, 13]\n[640, 45]\n[673, 12]\n[685, 0]\n[390, 295]\n[673, 12]\n[634, 51]\n[254, 431]\n[682, 3]]", fillcolor="#fbece0"] ;
14 -> 44 ;
113 [label="HRVcvnni <= 0.24\ngini = 0.13\nsamples = 340\nvalue = [[519, 13]\n[503, 29]\n[524, 8]\n[495, 37]\n[523, 9]\n[532, 0]\n[267, 265]\n[522, 10]\n[499, 33]\n[163, 369]\n[531, 1]]", fillcolor="#f8dfcc"] ;
44 -> 113 ;
115 [label="gini = 0.12\nsamples = 235\nvalue = [[364, 5]\n[355, 14]\n[364, 5]\n[340, 29]\n[363, 6]\n[369, 0]\n[127, 242]\n[368, 1]\n[343, 26]\n[107, 262]\n[368, 1]]", fillcolor="#f7d7c0"] ;
113 -> 115 ;
116 [label="gini = 0.12\nsamples = 105\nvalue = [[155, 8]\n[148, 15]\n[160, 3]\n[155, 8]\n[160, 3]\n[163, 0]\n[140, 23]\n[154, 9]\n[156, 7]\n[56, 107]\n[163, 0]]", fillcolor="#f7d7bf"] ;
113 -> 116 ;
114 [label="gini = 0.17\nsamples = 98\nvalue = [[131, 22]\n[111, 42]\n[148, 5]\n[145, 8]\n[150, 3]\n[153, 0]\n[123, 30]\n[151, 2]\n[135, 18]\n[91, 62]\n[151, 2]]", fillcolor="#ffffff"] ;
44 -> 114 ;
12 [label="HRVstd_hr <= 16.99\ngini = 0.14\nsamples = 8239\nvalue = [[9570, 3407]\n[7385, 5592]\n[12659, 318]\n[12724, 253]\n[12626, 351]\n[12948, 29]\n[11671, 1306]\n[12627, 350]\n[12065, 912]\n[12330, 647]\n[12368, 609]]", fillcolor="#fae8db"] ;
2 -> 12 ;
17 [label="HRVmean <= 506.75\ngini = 0.15\nsamples = 724\nvalue = [[1053, 98]\n[970, 181]\n[1139, 12]\n[1108, 43]\n[1120, 31]\n[1146, 5]\n[1085, 66]\n[1089, 62]\n[660, 491]\n[827, 324]\n[1146, 5]]", fillcolor="#fcf0e8"] ;
12 -> 17 ;
41 [label="qtstd <= 64.53\ngini = 0.13\nsamples = 418\nvalue = [[586, 67]\n[539, 114]\n[642, 11]\n[622, 31]\n[632, 21]\n[649, 4]\n[606, 47]\n[601, 52]\n[388, 265]\n[641, 12]\n[648, 5]]", fillcolor="#f9e3d2"] ;
17 -> 41 ;
141 [label="age <= 56.0\ngini = 0.12\nsamples = 277\nvalue = [[386, 46]\n[374, 58]\n[426, 6]\n[415, 17]\n[418, 14]\n[432, 0]\n[409, 23]\n[418, 14]\n[209, 223]\n[429, 3]\n[431, 1]]", fillcolor="#f6d4bc"] ;
41 -> 141 ;
143 [label="gini = 0.03\nsamples = 121\nvalue = [[196, 0]\n[195, 1]\n[196, 0]\n[193, 3]\n[194, 2]\n[196, 0]\n[195, 1]\n[196, 0]\n[30, 166]\n[194, 2]\n[196, 0]]", fillcolor="#e99659"] ;
141 -> 143 ;
144 [label="gini = 0.15\nsamples = 156\nvalue = [[190, 46]\n[179, 57]\n[230, 6]\n[222, 14]\n[224, 12]\n[236, 0]\n[214, 22]\n[222, 14]\n[179, 57]\n[235, 1]\n[235, 1]]", fillcolor="#fbebdf"] ;
141 -> 144 ;
142 [label="rAmp <= 140.0\ngini = 0.16\nsamples = 141\nvalue = [[200, 21]\n[165, 56]\n[216, 5]\n[207, 14]\n[214, 7]\n[217, 4]\n[197, 24]\n[183, 38]\n[179, 42]\n[212, 9]\n[217, 4]]", fillcolor="#fcf2eb"] ;
41 -> 142 ;
145 [label="gini = 0.17\nsamples = 25\nvalue = [[38, 0]\n[24, 14]\n[38, 0]\n[31, 7]\n[33, 5]\n[34, 4]\n[36, 2]\n[8, 30]\n[38, 0]\n[33, 5]\n[37, 1]]", fillcolor="#fffffe"] ;
142 -> 145 ;
146 [label="gini = 0.13\nsamples = 116\nvalue = [[162, 21]\n[141, 42]\n[178, 5]\n[176, 7]\n[181, 2]\n[183, 0]\n[161, 22]\n[175, 8]\n[141, 42]\n[179, 4]\n[180, 3]]", fillcolor="#f8dfcd"] ;
142 -> 146 ;
42 [label="prstd <= 43.53\ngini = 0.14\nsamples = 306\nvalue = [[467, 31]\n[431, 67]\n[497, 1]\n[486, 12]\n[488, 10]\n[497, 1]\n[479, 19]\n[488, 10]\n[272, 226]\n[186, 312]\n[498, 0]]", fillcolor="#fae5d6"] ;
17 -> 42 ;
57 [label="nnint <= 505.25\ngini = 0.09\nsamples = 207\nvalue = [[334, 1]\n[331, 4]\n[335, 0]\n[332, 3]\n[334, 1]\n[335, 0]\n[318, 17]\n[330, 5]\n[136, 199]\n[69, 266]\n[335, 0]]", fillcolor="#f2c19d"] ;
42 -> 57 ;
151 [label="gini = 0.09\nsamples = 147\nvalue = [[238, 1]\n[235, 4]\n[239, 0]\n[237, 2]\n[238, 1]\n[239, 0]\n[222, 17]\n[234, 5]\n[61, 178]\n[52, 187]\n[239, 0]]", fillcolor="#f2bf9a"] ;
57 -> 151 ;
152 [label="gini = 0.06\nsamples = 60\nvalue = [[96, 0]\n[96, 0]\n[96, 0]\n[95, 1]\n[96, 0]\n[96, 0]\n[96, 0]\n[96, 0]\n[75, 21]\n[17, 79]\n[96, 0]]", fillcolor="#eeaa7a"] ;
57 -> 152 ;
58 [label="HRVsdnn <= 61.9\ngini = 0.16\nsamples = 99\nvalue = [[133, 30]\n[100, 63]\n[162, 1]\n[154, 9]\n[154, 9]\n[162, 1]\n[161, 2]\n[158, 5]\n[136, 27]\n[117, 46]\n[163, 0]]", fillcolor="#fdf6f1"] ;
42 -> 58 ;
183 [label="gini = 0.15\nsamples = 35\nvalue = [[50, 6]\n[47, 9]\n[56, 0]\n[51, 5]\n[54, 2]\n[55, 1]\n[56, 0]\n[53, 3]\n[41, 15]\n[21, 35]\n[56, 0]]", fillcolor="#fcf1e8"] ;
58 -> 183 ;
184 [label="gini = 0.14\nsamples = 64\nvalue = [[83, 24]\n[53, 54]\n[106, 1]\n[103, 4]\n[100, 7]\n[107, 0]\n[105, 2]\n[105, 2]\n[95, 12]\n[96, 11]\n[107, 0]]", fillcolor="#fae5d6"] ;
58 -> 184 ;
18 [label="age <= 26.5\ngini = 0.14\nsamples = 7515\nvalue = [[8517, 3309]\n[6415, 5411]\n[11520, 306]\n[11616, 210]\n[11506, 320]\n[11802, 24]\n[10586, 1240]\n[11538, 288]\n[11405, 421]\n[11503, 323]\n[11222, 604]]", fillcolor="#f9e3d4"] ;
12 -> 18 ;
27 [label="tAmp <= 76.75\ngini = 0.08\nsamples = 178\nvalue = [[287, 3]\n[280, 10]\n[290, 0]\n[287, 3]\n[289, 1]\n[290, 0]\n[269, 21]\n[287, 3]\n[98, 192]\n[275, 15]\n[287, 3]]", fillcolor="#f0b78d"] ;
18 -> 27 ;
157 [label="gini = 0.09\nsamples = 22\nvalue = [[33, 3]\n[30, 6]\n[36, 0]\n[34, 2]\n[36, 0]\n[36, 0]\n[27, 9]\n[36, 0]\n[35, 1]\n[36, 0]\n[35, 1]]", fillcolor="#f3c3a1"] ;
27 -> 157 ;
158 [label="gini = 0.06\nsamples = 156\nvalue = [[254, 0]\n[250, 4]\n[254, 0]\n[253, 1]\n[253, 1]\n[254, 0]\n[242, 12]\n[251, 3]\n[63, 191]\n[239, 15]\n[252, 2]]", fillcolor="#eeab7a"] ;
27 -> 158 ;
28 [label="HRVnni20 <= 6.5\ngini = 0.13\nsamples = 7337\nvalue = [[8230, 3306]\n[6135, 5401]\n[11230, 306]\n[11329, 207]\n[11217, 319]\n[11512, 24]\n[10317, 1219]\n[11251, 285]\n[11307, 229]\n[11228, 308]\n[10935, 601]]", fillcolor="#f9e2d2"] ;
18 -> 28 ;
33 [label="HRVmean <= 299.13\ngini = 0.16\nsamples = 1141\nvalue = [[1555, 256]\n[1273, 538]\n[1770, 41]\n[1728, 83]\n[1759, 52]\n[1805, 6]\n[1375, 436]\n[1730, 81]\n[1694, 117]\n[1617, 194]\n[1667, 144]]", fillcolor="#fdf6f0"] ;
28 -> 33 ;
49 [label="HRVsdnn <= 42.08\ngini = 0.15\nsamples = 145\nvalue = [[222, 13]\n[185, 50]\n[231, 4]\n[225, 10]\n[227, 8]\n[235, 0]\n[138, 97]\n[234, 1]\n[234, 1]\n[235, 0]\n[97, 138]]", fillcolor="#fbebdf"] ;
33 -> 49 ;
155 [label="rrint <= 205.0\ngini = 0.12\nsamples = 77\nvalue = [[129, 4]\n[118, 15]\n[133, 0]\n[124, 9]\n[128, 5]\n[133, 0]\n[55, 78]\n[132, 1]\n[133, 0]\n[133, 0]\n[36, 97]]", fillcolor="#f7dac4"] ;
49 -> 155 ;
163 [label="gini = 0.03\nsamples = 8\nvalue = [[12, 0]\n[2, 10]\n[12, 0]\n[12, 0]\n[12, 0]\n[12, 0]\n[12, 0]\n[12, 0]\n[12, 0]\n[12, 0]\n[12, 0]]", fillcolor="#e89152"] ;
155 -> 163 ;
164 [label="gini = 0.1\nsamples = 69\nvalue = [[117, 4]\n[116, 5]\n[121, 0]\n[112, 9]\n[116, 5]\n[121, 0]\n[43, 78]\n[120, 1]\n[121, 0]\n[121, 0]\n[24, 97]]", fillcolor="#f4ccaf"] ;
155 -> 164 ;
156 [label="gini = 0.14\nsamples = 68\nvalue = [[93, 9]\n[67, 35]\n[98, 4]\n[101, 1]\n[99, 3]\n[102, 0]\n[83, 19]\n[102, 0]\n[101, 1]\n[102, 0]\n[61, 41]]", fillcolor="#fae8db"] ;
49 -> 156 ;
50 [label="rrint <= 509.25\ngini = 0.15\nsamples = 996\nvalue = [[1333, 243]\n[1088, 488]\n[1539, 37]\n[1503, 73]\n[1532, 44]\n[1570, 6]\n[1237, 339]\n[1496, 80]\n[1460, 116]\n[1382, 194]\n[1570, 6]]", fillcolor="#fcf0e7"] ;
33 -> 50 ;
85 [label="HRVmax_hr <= 224.3\ngini = 0.14\nsamples = 666\nvalue = [[881, 168]\n[715, 334]\n[1022, 27]\n[998, 51]\n[1011, 38]\n[1045, 4]\n[857, 192]\n[981, 68]\n[974, 75]\n[1029, 20]\n[1044, 5]]", fillcolor="#fae5d7"] ;
50 -> 85 ;
87 [label="gini = 0.14\nsamples = 422\nvalue = [[547, 146]\n[398, 295]\n[676, 17]\n[672, 21]\n[676, 17]\n[691, 2]\n[619, 74]\n[639, 54]\n[650, 43]\n[678, 15]\n[688, 5]]", fillcolor="#f9e3d3"] ;
85 -> 87 ;
88 [label="gini = 0.12\nsamples = 244\nvalue = [[334, 22]\n[317, 39]\n[346, 10]\n[326, 30]\n[335, 21]\n[354, 2]\n[238, 118]\n[342, 14]\n[324, 32]\n[351, 5]\n[356, 0]]", fillcolor="#f7dac4"] ;
85 -> 88 ;
86 [label="rrmin <= 333.0\ngini = 0.17\nsamples = 330\nvalue = [[452, 75]\n[373, 154]\n[517, 10]\n[505, 22]\n[521, 6]\n[525, 2]\n[380, 147]\n[515, 12]\n[486, 41]\n[353, 174]\n[526, 1]]", fillcolor="#fefbf9"] ;
50 -> 86 ;
139 [label="gini = 0.17\nsamples = 135\nvalue = [[201, 15]\n[185, 31]\n[208, 8]\n[204, 12]\n[211, 5]\n[216, 0]\n[132, 84]\n[209, 7]\n[193, 23]\n[116, 100]\n[215, 1]]", fillcolor="#fefaf7"] ;
86 -> 139 ;
140 [label="gini = 0.16\nsamples = 195\nvalue = [[251, 60]\n[188, 123]\n[309, 2]\n[301, 10]\n[310, 1]\n[309, 2]\n[248, 63]\n[306, 5]\n[293, 18]\n[237, 74]\n[311, 0]]", fillcolor="#fcf2eb"] ;
86 -> 140 ;
34 [label="qrsstd <= 18.89\ngini = 0.13\nsamples = 6196\nvalue = [[6675, 3050]\n[4862, 4863]\n[9460, 265]\n[9601, 124]\n[9458, 267]\n[9707, 18]\n[8942, 783]\n[9521, 204]\n[9613, 112]\n[9611, 114]\n[9268, 457]]", fillcolor="#f8dcc8"] ;
28 -> 34 ;
53 [label="rrperEn <= 0.7\ngini = 0.12\nsamples = 3797\nvalue = [[4323, 1599]\n[2656, 3266]\n[5777, 145]\n[5852, 70]\n[5754, 168]\n[5912, 10]\n[5386, 536]\n[5817, 105]\n[5850, 72]\n[5855, 67]\n[5600, 322]]", fillcolor="#f8dbc6"] ;
34 -> 53 ;
81 [label="HRVmin_hr <= 170.22\ngini = 0.16\nsamples = 228\nvalue = [[297, 64]\n[244, 117]\n[354, 7]\n[344, 17]\n[350, 11]\n[361, 0]\n[258, 103]\n[357, 4]\n[341, 20]\n[337, 24]\n[319, 42]]", fillcolor="#fdf7f2"] ;
53 -> 81 ;
111 [label="gini = 0.15\nsamples = 205\nvalue = [[260, 61]\n[207, 114]\n[314, 7]\n[304, 17]\n[310, 11]\n[321, 0]\n[247, 74]\n[317, 4]\n[301, 20]\n[297, 24]\n[308, 13]]", fillcolor="#fcf0e8"] ;
81 -> 111 ;
112 [label="gini = 0.1\nsamples = 23\nvalue = [[37, 3]\n[37, 3]\n[40, 0]\n[40, 0]\n[40, 0]\n[40, 0]\n[11, 29]\n[40, 0]\n[40, 0]\n[40, 0]\n[11, 29]]", fillcolor="#f3c7a7"] ;
81 -> 112 ;
82 [label="qAmpstd <= 18.88\ngini = 0.12\nsamples = 3569\nvalue = [[4026, 1535]\n[2412, 3149]\n[5423, 138]\n[5508, 53]\n[5404, 157]\n[5551, 10]\n[5128, 433]\n[5460, 101]\n[5509, 52]\n[5518, 43]\n[5281, 280]]", fillcolor="#f7d8c1"] ;
53 -> 82 ;
159 [label="gini = 0.13\nsamples = 127\nvalue = [[115, 84]\n[136, 63]\n[199, 0]\n[198, 1]\n[197, 2]\n[199, 0]\n[170, 29]\n[199, 0]\n[198, 1]\n[189, 10]\n[191, 8]]", fillcolor="#f8dcc8"] ;
82 -> 159 ;
160 [label="rrsamEn <= 0.68\ngini = 0.12\nsamples = 3442\nvalue = [[3911, 1451]\n[2276, 3086]\n[5224, 138]\n[5310, 52]\n[5207, 155]\n[5352, 10]\n[4958, 404]\n[5261, 101]\n[5311, 51]\n[5329, 33]\n[5090, 272]]", fillcolor="#f7d7c0"] ;
82 -> 160 ;
161 [label="gini = 0.15\nsamples = 231\nvalue = [[338, 35]\n[243, 130]\n[365, 8]\n[360, 13]\n[362, 11]\n[369, 4]\n[276, 97]\n[361, 12]\n[367, 6]\n[360, 13]\n[297, 76]]", fillcolor="#fcf0e8"] ;
160 -> 161 ;
162 [label="HRVmin_hr <= 170.21\ngini = 0.12\nsamples = 3211\nvalue = [[3573, 1416]\n[2033, 2956]\n[4859, 130]\n[4950, 39]\n[4845, 144]\n[4983, 6]\n[4682, 307]\n[4900, 89]\n[4944, 45]\n[4969, 20]\n[4793, 196]]", fillcolor="#f6d4bb"] ;
160 -> 162 ;
197 [label="gini = 0.11\nsamples = 2664\nvalue = [[2930, 1198]\n[1661, 2467]\n[4009, 119]\n[4097, 31]\n[4007, 121]\n[4122, 6]\n[3926, 202]\n[4043, 85]\n[4083, 45]\n[4108, 20]\n[4045, 83]]", fillcolor="#f6d1b7"] ;
162 -> 197 ;
198 [label="gini = 0.13\nsamples = 547\nvalue = [[643, 218]\n[372, 489]\n[850, 11]\n[853, 8]\n[838, 23]\n[861, 0]\n[756, 105]\n[857, 4]\n[861, 0]\n[861, 0]\n[748, 113]]", fillcolor="#f8decb"] ;
162 -> 198 ;
54 [label="rrsamEn <= 0.81\ngini = 0.13\nsamples = 2399\nvalue = [[2352, 1451]\n[2206, 1597]\n[3683, 120]\n[3749, 54]\n[3704, 99]\n[3795, 8]\n[3556, 247]\n[3704, 99]\n[3763, 40]\n[3756, 47]\n[3668, 135]]", fillcolor="#f8dcc8"] ;
34 -> 54 ;
55 [label="HRVmean_hr <= 204.07\ngini = 0.14\nsamples = 369\nvalue = [[507, 92]\n[454, 145]\n[579, 20]\n[578, 21]\n[584, 15]\n[596, 3]\n[492, 107]\n[572, 27]\n[591, 8]\n[572, 27]\n[531, 68]]", fillcolor="#fae4d5"] ;
54 -> 55 ;
169 [label="gini = 0.12\nsamples = 229\nvalue = [[322, 45]\n[311, 56]\n[357, 10]\n[353, 14]\n[355, 12]\n[367, 0]\n[298, 69]\n[346, 21]\n[359, 8]\n[344, 23]\n[361, 6]]", fillcolor="#f6d4bb"] ;
55 -> 169 ;
170 [label="gini = 0.16\nsamples = 140\nvalue = [[185, 47]\n[143, 89]\n[222, 10]\n[225, 7]\n[229, 3]\n[229, 3]\n[194, 38]\n[226, 6]\n[232, 0]\n[228, 4]\n[170, 62]]", fillcolor="#fdf4ee"] ;
55 -> 170 ;
56 [label="pAreastd <= 1905.55\ngini = 0.12\nsamples = 2030\nvalue = [[1845, 1359]\n[1752, 1452]\n[3104, 100]\n[3171, 33]\n[3120, 84]\n[3199, 5]\n[3064, 140]\n[3132, 72]\n[3172, 32]\n[3184, 20]\n[3137, 67]]", fillcolor="#f7d7c1"] ;
54 -> 56 ;
83 [label="gini = 0.13\nsamples = 408\nvalue = [[312, 337]\n[479, 170]\n[629, 20]\n[634, 15]\n[630, 19]\n[648, 1]\n[596, 53]\n[647, 2]\n[627, 22]\n[640, 9]\n[621, 28]]", fillcolor="#f8dcc8"] ;
56 -> 83 ;
84 [label="rAmpstd <= 58.8\ngini = 0.12\nsamples = 1622\nvalue = [[1533, 1022]\n[1273, 1282]\n[2475, 80]\n[2537, 18]\n[2490, 65]\n[2551, 4]\n[2468, 87]\n[2485, 70]\n[2545, 10]\n[2544, 11]\n[2516, 39]]", fillcolor="#f6d4bc"] ;
56 -> 84 ;
109 [label="gini = 0.11\nsamples = 629\nvalue = [[489, 518]\n[565, 442]\n[969, 38]\n[1006, 1]\n[977, 30]\n[1007, 0]\n[994, 13]\n[999, 8]\n[1007, 0]\n[1007, 0]\n[999, 8]]", fillcolor="#f5ceb2"] ;
84 -> 109 ;
110 [label="gini = 0.12\nsamples = 993\nvalue = [[1044, 504]\n[708, 840]\n[1506, 42]\n[1531, 17]\n[1513, 35]\n[1544, 4]\n[1474, 74]\n[1486, 62]\n[1538, 10]\n[1537, 11]\n[1517, 31]]", fillcolor="#f6d6be"] ;
84 -> 110 ;
}